patterns -0.046289 -0.57994 -0.12974 0.02746 0.16625 -0.1546 -2.9379 0.29201 -0.097215 -0.030854 -0.2011 0.087108 -0.24829 0.24303 -0.023601 0.32555 -0.11915 0.48895 -0.25574 0.14724 -0.55221 -0.11851 -0.054623 0.17969 0.3589 -0.3653 -0.06262 0.070882 -0.40475 -0.44666 0.31823 -0.61781 -0.11285 0.17723 -0.26144 -0.6097 0.35966 -0.23669 -0.07957 0.091022 -0.30091 -0.13923 -0.076972 -0.20693 0.073089 0.15038 -0.34409 -0.29991 -0.42408 0.19825 0.093622 -0.42365 -0.21296 0.21074 0.27458 0.90441 -0.0033943 0.21809 0.35855 -0.40846 -0.34622 0.18583 0.17811 -0.021973 -0.55329 0.41412 -0.14356 -0.053215 -0.69142 0.40911 -0.2687 0.14644 0.33579 -0.34741 -0.17684 -0.46802 -0.15426 0.64648 0.66872 0.21814 0.11073 -0.050645 -0.58206 0.09798 -0.068246 -0.049489 0.22147 -0.30864 0.46962 -0.2881 -0.32104 0.12794 0.28907 -0.21537 -0.32056 0.042817 -2.3717 -0.065639 0.054811 -0.30329 0.57755 0.21084 0.27836 0.17985 -0.06423 0.16869 -0.26904 0.64903 0.29821 -0.54488 -0.10718 0.41023 0.28207 1.1536 0.49809 0.8722 -0.47444 -0.10275 -0.86275 -0.064695 0.31929 -0.034955 0.3004 0.025092 -0.62249 -0.31364 -0.48554 0.10753 -0.069293 -0.17588 -0.22737 -0.13516 -0.95089 0.056059 -0.50389 -0.23465 0.47642 -0.44696 0.22933 0.35253 0.010904 0.14618 -0.20775 -0.3226 0.26686 -0.33896 0.21651 -0.020995 0.62628 -0.08264 0.30017 -0.43514 -0.37863 0.18477 0.4201 0.51252 -0.24346 0.23148 -0.025592 -0.17707 0.12969 0.38564 0.5387 0.13868 0.14906 -0.44544 0.064512 -0.13484 0.38158 0.26332 -0.099933 -0.058326 -0.32168 -0.22608 -0.091186 0.17846 -0.15431 -0.37122 -0.51131 -0.19048 -0.079356 -0.17505 -0.14633 0.18316 -0.10169 0.1091 0.35524 0.29674 -0.028084 0.053639 -0.22152 -0.45677 -0.14181 -0.24971 -0.037004 -0.16835 0.28799 0.54742 -0.16157 0.5059 0.5266 -0.16871 0.75442 0.1522 -0.21145 -0.13125 0.30205 -0.64717 -0.035988 0.41715 0.29137 -0.0613 0.059633 0.17549 0.15718 -0.23855 0.19453 0.44744 -0.12654 -0.17658 -0.28497 -0.028498 0.63513 -0.37896 -1.1043 -0.079694 0.29652 -0.57502 0.2082 0.32718 0.26234 -0.13668 0.33755 0.091328 -0.25108 -0.53242 0.25615 -0.45196 -0.15112 -0.46403 0.12111 0.091622 0.79221 -1.3063 -0.4331 -0.019367 -0.029105 0.014505 0.32176 0.3726 -0.39355 0.70657 0.11427 -0.16422 0.15049 0.030679 0.012811 -0.11504 0.88229 -0.93397 0.16276 0.10127 -0.083692 0.52581 -0.23194 -0.074332 0.084545 0.26079 0.4887 -0.0028291 -0.6749 -0.295 0.046931 -0.3756 -0.033029 0.43101 0.067465 0.31912 -0.024549 0.051819 1.0039 0.10399 -0.066853 -0.089461 0.33862 -0.038284 -0.20704 -0.19107 0.18 -0.074489 0.46845 -0.074441 0.079715 0.17955 -0.052531 -0.46352 0.40245 0.036097 0.75529 -0.04891
whoopie -0.57443 -0.13615 -0.043196 -0.26667 0.73967 -0.36829 0.39931 -0.37457 -0.16348 -0.85486 0.29183 -0.59501 0.12168 0.39921 -0.21815 0.51298 0.049014 -0.34199 0.19824 0.11833 0.07702 -0.033247 -0.04704 0.12091 -0.61595 -0.14363 0.41434 0.1634 -0.044948 0.21223 -0.16574 0.066612 0.11416 -0.068675 0.41723 -0.65408 0.0024279 0.55086 0.77585 0.050837 -0.14084 -0.32294 -0.26929 0.33774 -0.36758 0.11985 -0.020393 0.0073336 -0.38347 0.19317 0.18562 -0.066404 -0.055405 0.38013 -0.45214 -0.31936 -0.0802 0.34028 0.39849 -0.25316 0.21772 0.36051 -0.015918 0.05054 0.32364 -0.079457 0.30061 0.26793 -0.6417 0.077768 0.029206 0.1051 -0.43763 -0.057996 -0.23353 0.2062 -0.22917 0.21725 -0.5429 0.72419 0.14995 -0.73536 -0.29708 -0.81596 0.73406 -0.23353 0.46412 0.23103 -0.33371 -0.40229 0.3977 -0.068999 -0.54022 0.66135 -0.56864 -0.91004 0.12419 -0.61354 -0.016369 -0.072155 0.045468 -0.15991 1.3352 0.01192 -0.32041 -0.40202 -0.011247 0.0078747 0.02151 0.46699 -0.086562 0.26349 0.28776 0.49433 -0.20496 0.78943 -0.23596 -0.60043 0.10326 0.33616 0.28038 0.39246 -0.17946 0.11005 0.20752 -0.23743 0.43942 0.098224 -0.55269 0.093356 -0.73756 0.5278 -0.13911 -0.22439 -0.27244 0.55489 -0.22241 -0.048924 0.22059 0.037227 0.6131 0.041517 0.086882 -0.23994 -0.027212 -0.66972 0.96344 0.0073045 0.2316 -0.053222 -0.12568 -0.55313 0.89212 -0.10715 0.57542 0.047697 -0.075208 0.37674 -0.019942 0.066963 0.22159 -0.50723 -0.097353 0.11773 -0.44676 0.25776 -0.52089 0.40536 -0.40433 0.22841 -0.33827 -0.10722 -0.39704 -0.18373 0.48814 0.377 0.31026 -0.56444 -0.38475 -0.30511 0.053744 -0.16207 -0.049279 -0.0011298 0.41609 -0.63932 -0.16938 0.10287 -0.21438 0.50441 0.23615 0.054959 -0.60675 -0.59596 -0.31504 -0.18862 0.39817 0.56216 -0.11893 0.22979 0.045016 -1.0182 -0.26037 0.18293 0.36405 -0.05727 -0.63031 -0.83153 0.086983 0.24887 0.13676 0.12618 -0.34245 -0.34554 -0.3306 -0.30797 0.071318 -0.035025 0.36988 -0.39807 -0.068543 0.43978 0.0088913 -0.48191 -0.26219 0.77249 -0.080016 -0.10134 0.054148 -0.71192 -0.072629 0.11952 0.28104 -0.35365 -0.34674 0.10192 0.14222 -0.28674 -0.66871 0.031112 -0.52846 -0.23956 0.26827 0.50037 -0.11338 0.19399 -0.4969 0.28905 0.63339 0.1291 -0.25229 0.59602 0.40848 1.4353 0.39265 -0.13874 -0.44445 0.5334 -0.12381 -0.10507 0.63537 -0.21557 0.18481 -0.53805 -0.2004 0.58952 0.25483 -0.16897 -0.042504 -0.38166 -0.057093 0.27556 -0.32273 -0.082337 0.14539 -0.1969 -0.095774 0.47673 -0.042194 -0.23602 -0.04687 0.50174 -0.76632 0.43318 0.036827 0.20212 -0.21572 0.052468 -0.65102 -0.15273 -1.0992 -0.39506 -0.095512 -0.13301 0.48318 -0.4426 -0.77939 -0.23433 0.033988 0.48009
chess -0.16983 0.15633 0.22564 -0.20587 0.27149 -0.18341 -1.1973 -0.77999 0.13405 0.40027 -0.17469 -0.27712 -0.33954 0.79366 0.13642 0.32057 0.16453 -0.50003 -0.14556 0.078514 0.0098241 -0.39025 0.29505 -0.36534 0.5546 -0.012026 0.036698 0.3747 0.10971 0.045686 0.321 -0.021774 -0.18655 0.005996 -0.13892 -0.76744 -0.12755 -0.047537 -0.57078 0.20937 -0.15409 0.0020602 -0.76332 -0.27585 -0.29063 0.29831 0.50098 -0.11631 -0.32548 -0.58652 0.078661 0.14001 -0.046399 -0.007831 -0.15713 -0.46913 -0.52565 0.083675 -0.67434 -0.38871 0.027551 0.029349 0.61619 -0.012817 0.6747 0.1679 -0.10065 0.30156 -0.68668 -0.54413 0.030588 0.28809 0.3664 0.052404 0.035701 0.33711 -0.11431 0.046493 -0.03183 -0.13647 0.12778 -0.54805 0.088117 -0.47004 0.10597 0.01761 0.34409 -0.048773 -0.2276 0.14569 0.42086 -0.44371 0.49865 -0.20439 -0.44193 0.091852 -2.0087 0.42948 -0.13763 -0.62739 0.16765 -0.58765 -0.02473 -0.7387 0.094774 -0.30658 0.14295 -0.03339 -0.47077 -0.12944 -0.1225 -0.79427 0.081471 0.41562 0.35713 0.17564 0.061034 0.10921 -0.078914 0.45809 -0.065661 0.91519 -0.02636 0.19196 -0.062947 0.35919 -0.38596 0.073489 0.12533 -0.042869 -0.45435 0.57156 0.24708 0.21224 -0.44893 6.0858e-05 0.52431 0.65617 0.99339 0.70184 -0.23896 -0.24585 0.50678 0.35016 0.3324 0.51178 0.30362 -0.015723 0.0022688 -0.16303 -0.54072 0.16794 0.25841 -0.23983 0.21838 0.01841 -0.20068 0.037252 -0.3779 0.077413 -0.45299 0.51754 0.87852 0.048777 -0.87447 -0.37202 -0.34807 0.34995 0.41413 0.44351 -0.13851 -0.061881 0.24173 -0.44523 -0.10339 -0.57243 -0.17993 -0.31331 -0.64743 0.56975 0.18235 -0.3692 -0.28183 -0.053178 0.60587 0.13992 -0.22376 0.023031 0.67194 -0.052485 -0.11533 0.061057 0.17891 0.11942 0.7503 0.40713 -0.30959 0.034612 -0.062392 0.098348 -0.17887 0.22643 0.53287 0.0005359 -0.45848 0.52754 -0.1834 -0.30382 0.56899 0.44282 0.18594 -0.11658 0.010336 -0.49136 -0.11336 -0.49202 0.43114 0.32869 0.62008 0.058764 -0.67233 0.52436 -0.51713 -0.14099 -1.6471 -0.091358 -0.16141 -0.11244 0.40726 0.070528 -0.11549 0.038292 1.2444 0.25385 -0.83318 -0.70994 0.55294 -0.061063 -0.16454 0.19071 -0.0071108 -0.10028 0.0030466 0.29672 0.26304 0.39256 -0.095225 -0.0232 0.14253 0.78035 -0.49027 0.22962 -0.077466 0.34982 0.48622 -0.8795 0.3433 0.083904 0.54658 0.31048 0.13858 0.11302 -0.29735 -0.083014 -0.16023 0.33144 -0.34856 0.59245 -0.57415 0.48029 -0.18446 0.12185 0.13176 0.17666 0.018698 0.29514 0.42097 0.46232 -0.19572 -0.30051 -0.096196 0.47802 -0.31386 0.35045 -0.1488 -0.5539 0.17021 -0.4485 0.54724 0.27018 0.44031 0.19062 0.64171 0.59503 0.13603 0.61029 0.12448 0.48859 0.20592 0.037168
cutie -0.48794 -0.28661 -0.22344 0.38808 0.25807 -0.3495 -0.6795 -0.48276 0.38741 -1.1728 0.46658 0.20782 0.44693 -0.10692 -0.75514 -0.53792 -0.02648 -0.22021 -0.18615 0.26075 0.67626 0.018578 0.0005116 0.62494 0.48938 -0.30184 0.24964 -0.030421 0.34132 0.37368 0.62694 0.30434 0.81016 0.13887 -0.2987 -0.30202 0.44619 0.41467 -0.25223 0.5612 -0.48985 -0.22373 0.052566 0.24227 -0.4394 -0.011082 -0.033215 0.038217 0.44738 0.058033 0.73202 0.52403 0.28277 -0.031659 0.72053 -0.5922 0.052429 -0.29072 0.9515 0.033563 0.064051 -0.20746 0.44424 -0.12788 -0.32035 0.00042769 0.12303 0.094521 0.13078 -0.0016357 0.32223 0.38462 -0.094657 0.08506 0.15204 -0.45685 -0.15998 0.31919 0.49161 -0.15169 0.2145 0.46204 -0.41025 -0.32171 0.16294 -0.55131 -0.24448 0.57449 0.30933 0.27498 -0.18527 -0.14355 0.13629 0.19467 0.24269 0.076917 -0.44808 0.44011 -0.029084 0.65025 0.091818 0.053746 0.0067293 -0.10617 -0.68894 -0.02054 0.23945 -0.043417 -0.18856 0.19687 -0.26127 -0.62423 -0.63335 -0.049629 -0.32908 0.44595 -0.14569 0.46753 0.41408 -0.11767 -0.14001 0.24149 0.96173 0.50338 0.53445 0.017274 0.11306 -0.031995 0.15114 -0.17011 -0.27449 0.2969 -0.0090774 0.035909 -0.14109 -0.0078898 0.018799 -0.24874 0.38451 0.70149 0.11898 -0.17597 -0.050128 0.51617 0.16802 -0.48978 -0.33126 0.079309 0.63734 -0.25468 -0.27215 -0.44521 0.38691 -0.50481 0.17864 -0.85023 0.036898 0.085833 0.42956 -0.35142 0.16903 -0.10205 -0.21045 0.20922 -0.20359 -0.13444 -0.015359 -0.35038 -0.10628 -0.20923 -0.079924 -0.19908 -0.58273 -0.17212 0.086526 0.071879 0.21296 0.066002 -0.79041 -0.20228 -0.16765 0.32507 0.40432 0.048158 0.12182 -0.11448 0.0020987 -0.023365 0.42723 -0.081936 -0.16236 0.46218 -0.2285 -0.33893 -0.098418 0.075766 -0.18304 0.059069 -0.0059586 0.63768 -0.43805 -0.0096589 0.29176 -0.46661 -0.20909 0.031149 -0.17417 -0.38853 0.60157 -0.033775 0.16534 -0.40758 0.059836 0.23903 0.48967 0.13149 -0.0868 -0.1629 0.081703 -0.034135 0.26108 -0.053864 -0.37805 0.12829 -1.6385 -0.69926 -0.020399 -0.33268 0.079372 -0.28517 0.38986 -0.0060695 0.11789 0.093291 -0.50367 -0.043808 0.4259 -0.0034734 0.3637 0.060786 0.39659 -0.083888 0.31474 0.95408 -0.73991 0.069631 0.072754 0.086651 -0.021013 -0.5227 -0.57192 0.052003 0.71907 -0.10345 0.49049 -0.25406 0.032701 -0.055657 -0.18816 -0.12151 0.021744 -0.1012 -0.19268 0.15343 -0.84924 0.19145 -0.1743 0.10934 -0.026271 -0.01024 -0.15662 0.042805 -0.47173 0.24062 0.41579 0.22039 0.059105 -0.15492 0.18608 -0.00089973 0.92658 0.4119 -0.020175 -0.4339 -0.087894 -0.43753 -0.29307 0.26644 -0.36162 -0.28432 0.19971 -0.14064 -0.36711 -0.47426 -0.022105 -0.57035 0.0073643 -0.87056 -0.2082 0.20085
humble 0.11706 0.24764 0.37295 -0.2514 -0.48892 -0.31705 -2.2167 -0.26038 0.035755 -0.34325 -0.071273 -0.64549 -0.13683 0.20004 -0.55997 -0.091264 0.065317 -0.65639 -0.11148 -0.10014 0.12106 -0.23829 0.048552 0.21435 -0.45898 0.036442 -0.21315 0.76967 0.37718 0.22258 -0.098307 -0.13196 -0.045092 -0.005795 0.027402 0.41405 -0.4577 0.44983 -0.07018 0.68929 -0.25478 -0.37222 -0.079445 -0.055468 -0.56041 0.34213 0.57518 -0.4601 0.83043 -0.12795 0.84391 -0.18777 0.045821 -0.2109 0.23689 -0.090022 0.14294 -0.12852 0.32282 0.54158 0.1191 0.23039 0.2976 -0.59636 -0.2217 -0.1912 -0.10981 0.65044 0.15633 0.19564 0.095386 0.030435 -0.47294 0.32805 0.34084 -0.089686 -0.33003 -0.060825 -0.22719 -0.1723 -0.09382 -0.017762 -0.24475 -0.25915 -0.099492 -0.30093 -0.3641 0.11728 -0.41317 -0.025926 0.28724 0.2403 -0.20543 -0.55944 -0.27239 0.24416 -1.2121 0.22137 0.38735 0.018513 -0.25761 -0.051486 -0.50784 -0.91146 0.44253 0.51416 0.18671 -0.2415 -0.31202 0.37432 0.064321 -0.31783 0.17378 -0.21853 0.04591 0.40204 0.087747 0.054361 0.25335 0.34081 0.39667 0.032251 0.35938 0.037277 0.13131 -0.87845 0.10866 0.37384 0.027609 -0.067692 0.086708 -0.1606 -0.52485 0.20205 0.61974 0.31921 0.36856 -0.36991 0.08797 -0.54231 0.45902 0.2684 -0.11675 -0.80082 0.15374 0.19651 -0.60231 0.22743 0.46031 -0.034556 0.1472 -0.21135 -0.18606 0.42728 -0.14931 -0.21603 -0.38267 -0.12031 -0.021208 0.71517 0.20643 -0.25908 -0.31835 0.28071 0.13578 0.60301 -0.12409 -0.44247 0.25239 0.15088 -0.17629 -0.27044 0.3099 -0.40687 -0.028209 0.67243 0.12739 -0.27951 -0.63058 0.013266 -0.043044 0.47424 0.1937 -0.021499 -0.23194 -0.14647 -0.59828 0.79859 0.33423 0.031066 0.249 0.59892 0.83912 0.39281 -0.08741 0.35637 0.042869 -0.34393 -0.3472 -0.34472 -0.53008 0.18988 0.033894 -0.12655 0.34999 -0.3478 0.10992 0.21416 0.12152 0.20199 -0.12021 -0.00052207 -0.036439 -0.083669 -0.11919 0.21556 0.33427 -0.016738 -0.077701 -0.083069 0.06755 0.13166 -0.057344 0.013214 -1.1561 -0.10774 -0.42081 0.66282 0.12109 0.12123 0.35484 0.090824 0.26256 0.48833 0.31634 0.64661 0.17131 0.51163 0.50329 0.1553 0.25733 0.20261 -0.38308 0.62424 0.29675 0.17878 -0.32628 0.03702 -0.0098972 -0.059745 0.1138 -0.074335 -0.49841 -0.24563 1.0435 0.15992 0.19735 0.27258 -0.0080434 -0.023812 0.28492 -0.70594 -0.18248 -0.12577 -0.7457 0.090715 -0.24986 -0.13712 -0.21465 0.41603 -0.56785 0.25598 -0.73361 0.18153 -0.27927 -0.023214 -0.043402 -0.21059 -0.45299 -0.024141 0.24337 -0.41765 0.41383 0.70132 0.5931 -0.0014994 -0.15474 0.059779 -0.2781 0.04163 -0.36893 0.11959 0.38621 -0.73463 0.40379 -0.12377 -0.20285 -0.034081 0.036789 -0.42614
stripes -0.25191 -0.39901 -0.3611 -0.016846 0.23267 -0.17257 -1.251 -0.0088327 -0.083714 -0.70359 0.43617 -0.25185 -0.012971 -0.049145 0.098039 0.56315 -0.004116 0.32057 -0.6419 -0.01392 -0.16033 -0.20475 0.0039393 0.8128 0.46901 -0.30402 0.11921 0.45398 0.012869 0.28395 0.13215 -0.27549 -0.23315 0.21176 -0.045637 -0.35042 -0.19409 0.39529 -0.02218 -0.06311 -0.25756 0.41507 0.079294 -0.32474 0.13785 0.11508 -0.59583 -0.42168 0.062926 0.15111 0.046804 -0.074725 -0.41588 -0.2226 0.18728 0.47066 0.24825 -0.33128 0.85922 0.13446 -0.54754 0.27017 -0.38557 0.056183 -0.023814 -0.043861 -0.49637 -0.31007 -0.61034 0.37626 -0.528 -0.19363 0.40476 -0.58009 0.012969 -1.0083 0.18433 0.30817 -0.28666 0.37242 0.57414 0.61343 -0.68824 -0.0096935 0.1743 -0.47438 -0.10945 -0.1707 -0.28224 -0.49158 -0.098325 0.31185 -0.31195 -0.34441 0.41355 -0.19436 -1.4685 0.272 0.2604 -0.044245 0.79702 -0.48666 0.25067 0.58511 -0.55427 0.46728 0.18314 1.1438 -0.077699 0.076073 -0.1776 0.28909 0.16936 -0.040635 -0.27288 0.59392 -0.76389 -0.86913 0.026006 0.57854 0.051738 0.15622 0.22026 -0.35952 -0.13346 0.14771 0.042589 -0.16991 0.39383 -0.43614 -0.33758 0.18303 -0.58887 0.44774 -0.21829 -0.042211 -0.21776 -0.061068 0.19763 0.28557 -0.038237 0.37286 0.38053 -0.8267 0.71626 0.11955 0.15301 0.22521 0.06726 -0.099041 -0.27603 -0.049635 -0.23481 0.10327 0.36721 0.27488 0.5956 -0.11081 -0.065944 -0.14403 -0.13717 0.59531 -0.049833 -0.11512 -0.23623 -0.24492 -0.1096 -0.20597 -0.081576 0.22023 -0.25329 0.52238 -0.1964 -0.30162 -0.22271 0.074008 0.3074 -0.076809 -0.25694 0.46025 -0.099788 -0.39051 -0.32122 0.21783 1.029 -0.50647 0.063745 -0.12999 0.14905 0.018389 -0.40544 -0.26506 -0.16733 0.25115 -0.10399 0.58287 0.26022 0.038079 -0.22412 -0.094282 -0.040635 0.16984 -0.067184 -0.098903 -0.13587 -0.14277 0.20111 -0.42208 0.36351 -0.26629 0.75074 -0.1406 0.29702 0.56777 0.033826 0.017582 0.039759 0.63266 0.42416 -0.1309 -0.045434 0.32838 0.62372 0.23829 -1.6888 -0.32539 -0.51331 -0.34725 0.33298 -0.07549 0.10727 0.70633 0.5633 0.28023 -0.42269 -0.30392 -0.21562 -0.14998 0.004953 -0.011535 -0.19141 0.19983 0.50087 0.14988 -0.068096 -0.11969 0.40934 -0.078754 0.47262 0.14114 -0.5476 -0.0061689 0.27646 0.36324 0.0011964 0.10836 0.0074581 0.49685 0.015851 -0.55027 -0.31257 0.19006 -0.037964 0.1614 0.013871 -0.2011 -0.5465 -0.26559 -0.078295 -0.49669 -0.035935 0.15748 -0.79347 -0.30449 0.041614 0.21377 0.6648 0.35027 -0.41751 -0.27473 0.60049 0.75153 0.056076 -0.17883 0.23912 -0.11921 -0.39354 0.16318 -0.46583 0.51597 0.02251 0.26812 0.20266 -0.16279 0.29578 0.17587 0.021486 -0.36414 -0.073062 0.063737
honeycomb 0.20428 0.13146 0.012437 -0.20613 1.1586 -0.53241 -0.8923 0.79671 0.59538 -0.69435 0.24234 -0.11211 0.58444 0.24517 -0.19064 0.51525 -0.67029 -0.14124 -0.68065 0.47638 -1.0424 -0.61482 0.10248 -0.20158 0.35513 -0.041556 -0.2624 -0.25668 0.021336 -0.05866 0.076367 -0.41458 0.39239 0.55084 0.46252 -0.17575 0.14292 -0.023915 0.67008 0.24747 0.13669 -0.4116 -0.52815 0.13401 -0.35775 -0.22858 -0.1501 0.14327 -0.22604 -0.74359 0.14167 0.36521 -0.15674 -0.34932 0.22947 -0.098961 -0.23491 0.04301 0.52978 -0.27265 -0.13281 -0.58295 -0.84071 -0.33009 -0.10095 -0.76911 -0.19072 0.059899 -1.3197 0.49418 -0.4699 0.5142 -0.16687 0.31985 0.17249 -0.60103 -0.073515 0.22195 -0.27459 0.088677 -0.34094 0.29363 0.20145 -0.21598 0.013935 0.1066 -0.22365 -0.69045 0.33441 -0.49258 -0.27209 0.49149 -0.0066351 0.44185 0.2712 -0.43666 -0.53083 0.31338 -0.47131 -0.50113 0.69211 0.23188 0.90297 0.66157 -0.050546 -0.089923 -0.15145 0.75199 0.22612 0.68865 1.0004 0.42972 -0.68323 -0.064575 -0.25453 0.55041 -0.024654 -0.51034 -0.40961 0.36092 -0.79419 0.19324 -0.15019 -0.0088262 -0.078592 -0.52364 0.51346 -1.0802 -0.34992 0.01085 0.44717 0.087533 -0.36224 -0.57784 -0.14497 -0.16232 -0.053787 -0.3076 0.64597 0.13399 -0.049685 0.1491 -0.1445 -0.48348 0.39866 0.36885 0.26083 0.029181 0.22101 -0.51541 -0.39282 -0.044468 -0.21562 0.26048 0.97616 0.11308 0.076488 -0.34598 -0.012137 -0.50185 -0.11368 -0.082616 -0.012855 0.12398 -0.78354 0.28098 0.41259 -0.38204 -0.010927 0.49766 -0.028818 0.60429 -0.3544 0.053562 0.33409 -0.43394 0.22182 -0.43469 -0.81547 -0.28975 0.54259 -0.35706 0.43172 0.036361 1.0824 -0.26851 -0.13843 0.42457 0.066632 -0.41043 0.20628 -0.017349 -0.14425 0.49016 0.14471 0.42933 0.12809 -0.28962 -0.098516 -0.059709 -0.3359 -0.13903 0.074147 0.21317 0.21406 -0.4801 -0.36481 0.010268 -0.1893 -0.26546 -0.33639 0.29861 -0.33703 -0.44572 0.11004 -0.25879 0.079777 0.60386 -0.58022 -0.3138 0.34664 -0.63608 -0.056492 0.67103 -0.78958 0.78249 -0.023598 -0.57364 -0.011683 0.54765 -0.14524 -0.53621 0.88085 -0.21647 0.1534 -0.023045 -0.046646 -0.53557 -0.42316 0.34665 0.15301 -0.28102 0.54959 0.60517 -0.015408 -0.39814 -0.13468 -0.92646 -0.025023 0.9672 -0.46425 0.27841 -0.15172 0.58248 0.096246 0.42706 -0.24343 0.64107 -0.42568 -0.67989 0.26134 0.0011526 -0.15754 0.15782 0.089054 -0.19693 0.027265 -0.39865 0.23998 0.44088 -0.40234 -0.068213 -0.34349 0.20251 0.31664 0.4109 -0.72974 0.26319 -0.10267 0.37335 0.33004 0.053997 0.16788 -0.043889 0.50055 -0.012245 0.12992 0.1783 0.57685 -0.097633 -0.030869 0.36928 -0.3256 -0.20808 0.39693 0.059114 -0.86706 0.59604 -0.090971 0.061376
checkers -0.29764 -0.020794 0.72076 0.10692 0.58669 -0.36661 -0.70083 -0.38368 0.21642 -0.41425 0.17346 -0.47582 -0.14999 0.11689 0.048543 0.51654 0.022314 -0.085728 -0.10145 -0.0014152 -0.44524 -0.40693 0.52352 0.04524 0.046541 -0.053513 0.10791 0.23801 0.20646 -0.74142 0.24017 -0.1067 -0.12327 -0.58729 -0.68911 -0.60448 0.04675 -0.22534 -0.12619 0.17372 0.16636 0.66891 -0.048822 -0.62538 0.30593 -0.36731 0.32098 -0.21748 -0.18173 0.0017865 0.086238 -0.056784 -0.13307 -0.034385 -0.018133 0.085726 -0.40619 0.52195 -0.72297 -0.23811 -0.38188 -0.22334 0.26803 0.15682 0.39944 -0.13108 -0.48046 0.14807 -0.0379 -0.029816 -0.054724 0.59908 0.29948 0.37115 0.037838 -0.091447 0.28888 0.28726 0.050719 -0.28863 -0.4424 0.20622 0.051925 -0.33399 0.31413 -0.2535 -0.12508 0.63182 -0.41798 0.038142 0.37983 -0.45097 0.28595 -0.4018 -0.083893 -0.25081 -0.82023 0.33205 -0.24696 -0.29318 -0.013398 -0.33534 0.68942 -0.10389 -0.56787 -0.44676 0.043702 -0.11265 -0.25166 0.0409 -0.081627 -0.56516 -0.010791 0.19247 0.44347 -0.18575 -0.13081 -0.54323 -0.33263 0.4911 0.24311 0.27895 0.38536 0.20755 0.010878 0.61827 -0.010848 0.59325 0.9587 -0.40588 -0.3842 0.63088 0.042083 0.21442 -0.67364 -0.36075 0.23748 0.19511 0.4119 0.35705 0.22292 -0.24294 0.50677 -0.50358 -0.17403 0.29689 0.16749 -0.10877 -0.24705 -0.28277 -0.83604 0.026546 0.38209 0.055751 0.29245 -0.26875 0.094932 -0.33211 0.083036 0.19111 -0.34409 0.065335 0.74802 0.14026 -1.1291 -0.26181 0.24124 -0.35996 0.53963 0.3277 0.13442 -0.069473 0.19285 -0.098465 -0.21248 -0.074394 -0.34369 -0.46778 -0.22978 0.52364 -0.17448 -0.71329 0.023952 -0.037526 -0.15208 -0.10342 -0.17566 0.045098 0.51583 0.093874 -0.29581 -0.19683 0.063037 -0.38513 0.094879 0.18817 -0.12595 -0.1688 0.38417 0.14903 -0.095124 0.093998 0.26919 0.11378 -0.85534 0.53063 -0.16153 -0.048121 0.76554 0.3262 0.59697 0.43428 0.50618 0.2829 0.48906 -0.38889 -0.26139 0.26842 0.78094 -0.10116 -0.32001 0.27446 -0.48646 -0.37726 -0.99649 0.49956 -0.0044658 0.48056 0.011353 0.020609 -0.14106 0.64978 0.62526 -0.14093 -0.79461 -0.47941 0.35632 -0.094883 0.66932 -0.46619 -0.20089 -0.16784 0.10773 0.033129 -0.011842 -0.14899 0.41726 0.30805 0.30808 0.29482 -0.07521 0.28236 -0.066257 0.084553 0.16196 -0.39737 -0.41307 -0.10319 -0.032912 -0.12141 0.42174 -0.11874 -0.27608 -0.14647 -0.050815 0.35075 -0.54381 0.055734 0.015317 0.58465 -0.24659 -0.039765 0.16168 0.22644 -0.0051153 0.41957 0.57604 0.78349 -0.0093413 -0.27302 0.018723 0.54026 -0.25573 0.5177 -0.25446 -0.89406 0.28686 -0.1731 0.32627 0.6064 0.47862 0.15175 0.081906 0.64322 0.37726 0.38227 -0.61721 0.38018 0.11687 -0.48238
camo -0.19459 -0.0060616 -0.057752 -0.14585 0.41534 0.0070044 -0.43606 0.083214 0.28507 -0.35943 1.1283 0.10767 0.57619 0.32851 0.3059 0.37052 0.019087 0.61705 0.52744 -0.28696 0.38749 -0.51459 0.18539 0.33482 0.0214 -0.3189 0.0016468 0.81067 -0.29271 0.15973 -0.023606 0.18358 0.39961 -0.29744 0.45094 -0.19364 -0.063651 0.1326 0.41664 0.16294 -0.16973 0.20986 -0.16443 -0.34172 0.58271 0.15213 -0.21321 -0.76204 -0.093595 -0.16942 0.34921 0.32019 -0.26442 0.15474 0.5337 0.29618 -0.11001 -0.57944 0.61662 -0.85105 -0.60785 -0.41557 -0.37384 0.28629 -0.1263 -0.082757 0.050416 0.62895 -0.48115 0.23169 -0.4919 0.24104 -0.12359 -0.48349 -0.033443 -0.15332 0.67568 -0.78245 -0.054138 0.68528 0.29639 1.5431 -0.3823 0.32414 0.16434 -0.52906 0.23366 -0.10305 0.44524 -0.083725 -0.048546 -0.32627 0.58332 -0.16066 0.68875 -0.2721 -1.1636 -0.28112 -0.3761 0.23104 0.75652 -0.098921 1.0181 -0.55759 0.065893 0.51489 0.37515 0.82061 0.2548 0.13891 0.46258 -0.059149 -0.57567 -0.10723 -0.14953 0.26191 0.087041 -0.37626 -0.44177 -0.79703 0.45765 -0.47563 0.40359 0.13168 -0.38325 -0.28984 -0.066831 0.33829 0.34686 -0.50501 0.28912 0.11285 -0.10653 -0.13464 0.13803 0.050614 -0.092759 -0.16073 0.26158 1.0532 -0.22782 0.29757 0.089177 -0.49955 -0.27274 0.63173 -0.37496 0.70219 0.53199 -0.019795 -0.0927 0.70002 -0.34648 -0.19525 0.13309 0.33181 -0.26349 0.02229 0.61138 -0.31726 -0.82898 0.59302 -0.11978 -0.027225 -0.16246 0.0454 -0.023451 -0.35261 -0.5577 -0.35027 0.1305 -0.45863 -0.040899 0.68541 -0.25424 -0.011637 0.6331 -0.27085 -0.02904 -0.14187 -0.53805 -0.014289 0.11032 0.35081 0.65688 0.10084 0.14296 -0.51383 -0.45344 -0.0035584 0.19012 0.090756 -0.42784 -0.55537 -0.60684 -0.20129 -0.031526 0.3312 0.30927 0.049253 0.23017 0.22787 -0.35883 -0.3372 -0.35413 0.31245 0.49929 -0.28263 0.14736 -0.68319 -0.060059 0.15897 0.42699 0.36383 0.64304 -0.33762 -0.43434 0.077212 0.11543 0.012507 -0.49026 -0.051336 0.75858 -0.11712 -1.4656 -0.62595 -0.24057 -0.25992 -0.15635 0.030611 -0.49963 0.35076 0.32608 0.75571 -0.074579 -0.12727 -0.53343 -0.26994 0.46027 -9.3989e-06 0.1549 -0.024559 0.40342 -0.1369 -0.26076 0.055012 -0.56794 -0.65942 -0.041243 0.15759 -0.013273 -0.24045 0.43929 0.20864 -0.15839 -0.12833 -0.45636 -0.065219 -0.27861 -0.15427 -0.16772 -0.15954 -0.40277 -0.66445 -0.27394 0.0033153 -0.39302 -0.26718 0.25336 -0.35589 -0.21825 -0.038897 0.17149 -0.00987 -0.31149 -0.044289 0.046171 0.33744 0.51745 0.17725 0.24524 0.10057 -0.17215 0.21409 0.24323 -1.0937 -0.34933 0.12681 0.35643 0.015606 -0.14686 -0.17136 0.34098 -0.19673 -0.10154 -0.036178 0.39981 -0.28656 0.46576 0.28083
temper -1.1082 0.55116 -0.36254 -0.16574 -0.15665 -0.049189 -1.9985 0.48146 0.12981 -0.72459 0.19952 -0.17399 -0.39664 -0.23034 0.16412 -0.18965 0.15736 0.01146 -0.17139 -0.92795 0.11052 0.095839 0.15697 -0.38639 -0.40243 -0.11933 -0.41522 0.21333 0.040043 0.253 0.20965 0.00632 -0.064315 -0.40942 0.1129 -0.29118 0.13969 -0.7663 -0.11883 0.17295 0.43551 0.66361 -0.70589 0.40477 0.17034 0.26468 0.35832 -0.47001 0.6028 -0.27808 0.26698 -0.09479 0.22374 0.063488 -0.20632 -0.27876 -0.042513 0.042991 0.21085 -0.38284 0.6273 -0.018541 0.31422 0.21555 0.25027 -0.025879 0.057018 0.28747 0.092119 0.16443 -0.59769 0.26917 -0.16109 -0.028982 -0.28871 -0.18018 0.18475 -0.57983 0.034169 -0.37017 0.17191 0.25728 -0.74235 -0.040921 -0.71546 0.12447 -0.38437 0.037047 -0.14395 -0.31818 -0.090942 0.2084 0.06037 -0.13085 -0.043385 -0.051283 -0.53069 0.27711 0.012253 0.45258 -0.74024 -0.32331 0.086305 -0.37398 0.58632 -0.072244 -0.13377 -0.28775 0.3137 0.45558 0.2317 -0.041053 0.1442 -0.28976 0.11877 0.22264 0.16516 -0.25068 0.2987 0.47093 0.28802 0.015102 -0.038615 -0.55111 0.35272 -0.27566 0.13926 -0.33372 0.018932 -0.25838 0.23745 -1.0611 -0.23966 -0.31794 -0.16705 -0.39397 -0.092296 0.51287 -0.0541 -0.17544 0.37699 0.12484 0.093987 0.35865 0.82755 -0.35049 -0.14973 0.94247 -0.28917 0.20363 0.37906 0.019194 0.018731 -0.070059 -0.10016 0.58608 0.04633 0.063676 -0.075907 -0.25365 0.27875 0.058337 -0.86274 0.23854 0.50134 0.19158 0.22018 -0.010326 0.40109 -0.27994 -0.093101 -0.81255 -0.059958 0.027483 0.43315 0.49098 -0.19546 -0.43685 -0.95662 -0.41252 -0.0996 0.25496 0.57989 -0.46972 0.1082 0.35399 -0.55531 0.12343 -0.41162 -0.10937 0.21288 -0.49216 -0.036049 0.29369 -0.41012 0.22462 -0.13265 -0.30793 0.038955 -0.0078787 -0.16568 -0.18091 0.54075 -0.16577 -0.14549 -0.65365 0.48003 0.29669 -0.16572 -0.0062063 -0.060865 0.20519 0.17923 0.0074343 0.027977 -0.89291 0.10225 0.16113 0.14944 0.43666 0.045853 -0.012037 0.027988 -0.40367 -0.5171 -0.18534 -0.68393 0.12287 0.26493 0.23433 -0.10418 0.42563 0.32652 -0.60257 0.21065 0.44336 0.12786 -0.63933 0.55442 0.057828 -0.58705 -0.51768 0.43014 0.44144 0.078463 -0.0082306 -0.33538 0.28203 0.086978 0.012481 -0.47201 0.0035799 -0.48184 -0.34597 0.012472 -0.19544 -0.18748 -0.01923 0.10115 -0.11662 0.010245 -0.14592 0.41156 -0.39883 -0.61483 0.12775 -0.19491 0.36784 -0.49383 -0.35294 -0.1192 -0.21004 -0.026285 -0.17376 0.62436 -0.090414 -0.51838 0.2743 0.048769 -0.10083 1.1169 -0.22244 0.35665 0.21683 -0.84526 0.016571 -0.20347 -0.1724 -0.3133 0.19286 0.2933 -0.18975 -0.12278 0.063206 0.011141 0.22159 0.073186 -0.24928 0.018937 0.33447
soften -0.76841 0.21822 -0.25303 -0.3248 0.37578 0.25091 -1.5555 0.63863 -0.10678 -0.95668 -0.38003 0.15508 0.16147 -0.10866 0.15029 0.076202 -0.1475 -0.43893 0.29765 -0.67228 0.013626 -0.19002 -0.92112 -0.070719 -0.44683 -0.14295 -0.17788 0.27247 0.37235 -0.71161 0.28752 -0.15694 0.3335 0.48189 -0.072788 0.13379 -0.52397 -0.41576 -0.11678 0.15486 0.5678 0.13513 0.082764 -0.16265 -0.33501 0.24245 0.52257 0.021834 -0.17992 -0.28635 -0.39528 -0.51267 -0.16066 -0.17427 0.25825 -0.68013 0.18212 -0.66954 0.25414 -0.055845 0.44147 -0.14178 -0.45505 -0.48793 -0.20934 0.29788 -0.2475 0.048282 0.73097 -0.51055 -0.33178 -0.25727 -0.32552 -0.26862 0.50879 0.23009 -0.16088 0.28163 0.09102 -0.17414 -0.24637 1.0599 -0.37869 0.091933 -0.011061 -0.40923 0.12591 0.52321 -0.37692 0.13435 0.60925 0.023581 -0.086967 -0.26278 0.13037 0.57787 -0.92059 0.83631 0.13926 0.40387 -0.24285 -0.54676 0.79726 0.71367 0.3594 0.044851 -0.40898 -0.043827 0.15627 0.62389 0.34782 0.13098 0.30076 -0.18659 -0.48607 -0.20883 -0.57445 -0.6471 -0.49813 0.71519 -0.25209 0.57496 0.23835 -0.44467 -0.45647 -0.21419 -0.026125 0.21507 0.34554 -0.24796 0.10321 0.13294 -0.69549 0.20141 0.2134 0.032302 -0.0011589 -0.21496 -0.14222 -0.086679 0.98138 -0.0012269 -0.30987 0.54024 0.32821 0.35517 0.075755 0.78075 0.88943 0.22799 0.15404 0.2965 -1.1812 -0.1206 0.45733 -0.45764 0.66149 0.048315 -0.49097 -0.48239 0.62197 0.0029159 0.063743 0.26412 -0.057778 -0.48342 -0.25573 0.4193 -0.023792 0.05468 -0.26337 0.36046 -0.35017 -0.29082 -0.017098 0.50639 0.19238 -0.068672 -0.34928 -0.2593 -0.18182 -0.48674 0.2167 -0.035355 0.42695 0.080511 0.014398 0.35316 -0.065031 -0.51735 0.018053 -0.41151 -0.34239 0.098691 0.32478 -0.60077 0.20259 0.10277 0.099784 0.50969 0.74445 0.16056 -0.14809 -0.48801 0.086519 -0.13198 -0.082271 0.41365 0.089344 -0.19276 0.051286 0.16476 -0.12832 -0.92013 -0.085242 -0.44535 0.18075 -0.37355 -0.036155 -0.34147 -0.091477 -0.33591 0.086907 0.12646 -0.23275 0.44907 0.19767 -0.28702 -0.67532 -0.099881 0.025219 -0.056796 0.26787 -0.17336 -0.074669 0.58473 -0.119 0.40674 -0.3508 -0.065204 -0.3836 0.36699 0.024298 0.49778 0.83195 -0.2089 -0.095056 -0.43562 0.47418 -0.16647 0.27385 -0.38824 -0.39259 -0.25898 -0.018629 -0.19411 -0.73221 0.21262 -0.28656 0.34367 -0.11752 -0.027261 -0.29441 -0.92921 -0.084705 0.34542 0.51682 0.33145 0.33353 -0.52181 0.10839 -0.077168 -0.38134 -0.28091 0.11607 0.17265 0.11005 -0.2476 -0.70157 0.3753 0.91954 0.15041 0.12198 0.055376 -0.43598 -0.32829 -0.37759 0.16692 -0.39869 -0.25786 0.27943 -0.70014 -0.010293 0.0030672 0.39753 -0.65065 0.056397 -0.1608 -0.34332 0.15887
dampen -0.23453 -0.011443 0.18754 -0.4125 0.013212 -0.35663 -1.3297 0.47149 -0.077004 -0.16015 -0.44411 0.16359 0.1926 -0.37462 -0.18955 0.36447 -0.072697 0.38206 0.30689 -0.19673 0.11922 -0.12256 -0.50159 0.41919 -0.53241 -0.12096 0.073196 0.38881 0.77968 -0.71489 -0.62717 -0.53003 0.29506 0.29754 -0.33099 -0.053534 0.13091 -0.52074 -0.4025 -0.27098 0.70516 -0.029525 0.41906 0.028203 0.049676 -0.23626 -0.019095 -0.41309 -0.35445 0.48996 -0.28958 -0.4568 -0.064792 -0.12118 0.34319 -0.055661 0.38215 -0.20316 0.99175 0.06231 0.26819 0.12692 0.29111 0.36022 -0.31577 0.59855 -0.12132 -0.021676 0.13283 -0.24703 0.056551 -0.035145 0.27982 0.00020378 -0.2312 -0.025404 0.083377 -0.10477 -0.44477 -0.043598 -0.72895 0.57647 -0.28931 0.28533 -0.10216 -0.19763 0.29758 0.41035 0.10399 0.29663 0.53126 -0.26768 -0.41416 -0.050139 -0.25749 -0.15809 -0.24884 0.96301 0.60608 0.040433 0.13248 -0.03548 0.41952 -0.32305 0.7065 -0.082659 -0.096619 -0.21584 0.54911 0.49088 0.032598 0.28411 0.19795 0.17328 0.1575 0.18416 -0.1099 -0.10771 -0.39383 -0.14681 -0.59473 0.59437 -0.13683 -1.0357 -0.43072 0.48752 0.095002 0.19419 -0.070528 -0.20014 -0.2922 -0.32993 -0.25354 -0.22299 0.37523 -0.34469 -0.6134 0.15178 0.18096 -0.65747 0.23007 -0.29515 -0.72662 0.30788 -0.2228 0.39399 -0.07901 0.23693 0.45565 0.030614 0.23745 0.36358 -0.72868 0.10428 -0.035689 0.007598 1.0015 0.011464 -0.41852 0.18564 0.57415 0.18624 0.020156 0.27944 0.0066519 -0.11873 -0.41439 0.69195 0.15135 -0.10892 -0.18056 -0.28084 0.15826 -0.029709 0.08377 0.36205 0.002509 -0.23942 -0.18699 -0.22427 0.95908 -0.1106 0.40097 -0.39855 0.40867 -0.04747 -0.38433 -0.22472 0.051889 -0.83329 -0.12233 -0.59652 -0.2524 -0.29326 -0.076866 -0.47228 -0.20646 -0.036185 0.077273 0.60922 0.087406 0.27297 -0.15747 -0.1699 0.11299 -0.081768 0.12834 -0.11928 -0.53759 0.050715 -0.00011298 0.022972 -0.213 -0.45263 0.51915 -0.12736 0.35277 -0.61595 -0.37651 0.081386 0.092225 0.10295 0.14525 0.12321 -0.11459 0.97289 -0.046849 0.17785 -0.12392 -0.10729 0.061822 0.11418 0.15393 0.09518 0.21874 0.11732 0.074484 -0.26849 0.27103 0.17843 0.058104 0.56932 -0.36171 0.55522 0.041351 -0.061893 -0.083088 -0.10112 -0.035748 -0.43984 -0.058663 -0.45629 -0.41225 0.39745 -0.61223 -0.24422 0.45075 -0.34088 -1.0701 0.39914 -0.20357 0.21124 0.25235 -0.13363 0.026787 -0.15125 0.53691 -0.33797 0.0019079 -0.22217 -0.076408 -0.47932 -0.21694 -0.22769 -0.13724 -0.56071 -0.24201 0.42752 -0.45628 -0.062337 0.84876 -0.48268 0.54151 0.051339 0.10701 0.15956 -0.82621 0.039899 -0.042542 -1.19 -0.00085874 0.0050637 -0.30281 0.1226 -0.2119 -0.10535 -0.20577 -0.67072 -0.23663 -0.32078
cushion 0.15974 0.37588 0.22393 -0.38075 0.93598 -0.47106 -1.0547 -0.0060832 -0.80022 -0.39268 -0.40341 -0.17192 0.29645 -0.029345 -0.81305 0.10811 -0.54375 -0.14209 -0.18546 -0.06899 0.62473 0.86718 -0.09821 0.65342 -0.34243 0.15269 0.46348 0.55559 0.20885 -1.3216 0.22162 -0.041817 -0.31658 0.10122 0.41887 -0.45887 -0.043897 0.39356 0.36374 0.2819 0.56307 0.469 0.19194 0.066737 0.70288 -0.24074 -0.10278 -0.23319 -0.33784 -0.10388 -0.37752 0.19074 -0.45221 -0.13223 0.043049 0.012294 0.016057 -0.3511 0.64645 -0.058746 0.1138 0.37076 -0.070609 -0.11324 0.65344 -0.21788 0.2316 0.81396 -0.42422 -0.15532 -0.035041 0.27647 -0.55011 0.18771 -0.37986 -0.55728 -0.064327 -0.13511 0.22332 0.15961 0.18862 1.1107 0.17421 -0.54396 -0.15386 -0.17618 0.16241 0.11572 -0.29393 -0.06848 0.57495 0.14272 0.057614 0.23408 -0.009289 -0.28804 -1.6119 0.04486 0.35252 0.35454 0.25193 -0.10309 0.69099 -0.2755 -0.29653 -0.72433 -0.92377 0.61256 0.078872 -0.13085 0.059309 0.025158 0.22658 0.077985 -0.23761 0.05964 -0.44537 -0.59253 -0.4886 -0.40483 -0.021434 0.25074 -0.30293 -0.30418 0.42352 -0.10728 -0.093936 -0.081118 -0.56072 0.14701 -0.054961 0.20489 -0.5086 -0.38993 -0.4884 0.2011 -0.83193 -0.51622 0.29502 0.23679 -0.1644 -0.047397 0.12284 -0.12703 0.36448 1.1711 0.29654 -0.19858 0.017226 -0.32026 -0.5023 -0.14172 -0.57717 -0.086177 0.30055 0.022545 -0.10517 -0.40026 0.20428 0.14828 0.17832 -0.08092 0.12926 0.020743 -0.2093 0.35263 0.10613 0.29567 0.0080339 -0.36123 -0.40773 0.20237 -0.2463 0.0065189 -0.27282 -0.19956 0.90507 -0.048193 0.33456 -0.50167 -0.26492 -0.56913 -0.68108 0.39663 0.2941 -0.10111 0.068373 0.27746 -0.17984 -0.26554 0.094478 -0.51545 -1.1182 -0.053811 0.42805 -0.050764 0.20953 0.82799 0.43606 0.14963 0.67326 -0.087443 0.83304 0.22047 0.076747 -0.036437 -0.25289 0.14445 0.13507 -0.13725 -0.072246 0.19164 -0.27847 -0.25185 0.49356 -0.036951 -0.064864 0.40327 0.26226 -0.082113 0.19855 0.08224 0.41141 -0.69883 -1.5476 -0.62681 -0.29511 0.089637 -0.27764 -0.1551 0.12481 -0.31136 0.20556 0.36042 0.0080938 0.47638 -0.13258 -0.48327 0.046676 -0.085138 -0.37024 0.15742 0.42504 -0.12125 0.64259 -7.7977e-05 0.69446 0.33149 0.2443 -0.021108 0.11052 0.39557 -0.1436 0.29399 -0.27997 0.1283 -0.94553 0.53141 -0.3539 0.33262 0.77152 -0.23372 -0.27848 -0.24952 0.016588 -0.32384 0.52696 0.038045 -0.039802 -0.65499 -0.046172 0.011333 0.095133 -0.49344 0.056712 -0.36727 0.12434 0.78606 -0.17843 -0.19104 0.91406 0.50666 -0.28645 0.12021 0.23478 -0.33947 -0.21094 -0.27725 -0.28633 -0.42239 -0.11305 0.0052129 -0.50256 0.0026765 -0.51173 -0.43365 0.28405 -0.1939 0.21933 -0.48429
attitude 0.074987 0.41316 -0.19877 0.1049 0.19949 -0.16318 -3.3919 0.10214 -0.051515 -0.41156 0.11038 -0.7466 -0.57249 -0.14006 -0.29597 -0.0015697 0.6059 0.2024 -0.86333 0.017542 0.24572 -0.017335 0.21647 0.15138 -0.156 -0.44045 -0.32084 0.26792 0.56751 0.49598 -0.079349 -0.042205 -0.082714 -0.11536 -0.23241 -0.044881 -0.11558 -0.17409 0.15119 0.54441 0.38094 -0.060608 -0.1425 -0.32372 0.14049 0.12195 -0.067171 0.46772 0.42156 0.24451 0.25238 -0.30205 -0.1498 -0.33916 0.029547 -0.022891 -0.0033406 -0.13177 0.13352 0.24804 0.34017 -0.045056 -0.061385 -0.1107 -0.19995 0.00048666 0.10358 0.34248 0.23079 0.90869 -0.19235 -0.2924 0.2619 0.068335 -0.1972 0.27108 0.026602 -0.35645 0.34204 -0.15511 0.35301 -0.42035 -0.58635 -0.024336 -0.52265 -0.5887 -0.18866 0.10437 0.15009 -0.21706 -0.049925 -0.066388 0.061327 0.12928 0.36526 0.57885 -1.9036 0.35597 0.29667 0.32828 -0.76173 -0.016216 -0.46829 -0.33798 0.072985 0.20609 -0.30662 -0.0056979 0.049312 0.18696 -0.22436 -0.20597 0.4361 -0.14848 -0.056623 0.50327 -0.30855 0.09741 0.34419 0.24375 0.52978 0.17595 0.19037 0.29571 -0.24615 -0.14558 0.035218 0.19504 0.057572 -0.49849 0.42203 -0.46579 0.099242 0.38294 -0.024987 0.015759 0.11129 0.32581 -0.19077 -0.4243 -0.1887 0.047583 0.27855 -0.0085078 0.16354 -0.0094549 -0.8195 0.33524 0.075897 -0.36149 0.47794 -0.068558 -0.35189 0.12397 -0.34975 -0.0056763 -0.2288 0.079263 -0.25416 -0.070343 0.47293 -0.32866 -0.84735 -0.20307 -0.044104 -0.20812 0.52162 0.23701 0.46838 -0.60699 0.093782 -0.3269 0.13775 -0.11214 -0.5352 -0.25383 0.0090731 -0.41909 -0.53116 -0.23609 -0.10067 0.68718 0.61397 -0.46966 0.42052 0.26895 -0.21137 -0.022379 -0.22447 0.32005 -0.072685 -0.037654 -0.31315 0.0088663 0.072214 0.41874 0.1156 0.26932 0.11235 -0.011275 -0.072763 -0.15497 -0.24813 -0.48526 -0.85349 -0.15566 0.31991 0.40977 0.3852 0.29259 0.23366 -0.2655 0.083513 0.30045 0.12405 -0.4949 -0.38837 0.40291 -0.21228 -0.0058665 0.014122 -1.7565e-05 0.26349 -0.050784 -0.60996 -0.32832 -0.26747 0.043522 0.17415 -0.26344 -0.17323 0.33029 0.22341 -0.31086 0.084849 0.27286 0.42222 0.31906 0.5143 0.096351 -0.025466 0.060635 0.20357 0.29569 -0.4683 0.51455 -0.34839 -0.30436 0.31324 -0.10733 -0.11175 -0.12383 -0.075599 -0.013253 0.17921 0.44514 0.055453 -0.10117 0.23171 0.1368 0.13225 -0.1828 -0.048808 -0.14392 -0.44808 0.11678 -0.35927 -0.12229 0.086864 -0.23613 0.054505 -0.056608 -0.57763 -0.0062326 -0.22928 -0.39947 -0.011111 -0.31651 -0.12719 0.30007 0.50764 -0.3519 -0.17627 0.27188 0.018685 0.08701 0.098187 0.31207 -0.32905 -0.36123 -0.076814 -0.0034627 0.4377 0.13613 0.43021 0.12122 -0.3836 0.11963 0.16787 -0.092951
mouth -0.50586 -0.16606 0.69801 0.10619 -0.47447 -0.48105 -2.6317 0.38857 0.28516 -0.75924 -0.036793 -0.52029 0.3405 -0.54544 -0.15283 0.16626 -0.36378 0.133 -0.43916 0.4269 -0.079958 -0.14904 0.13403 -0.0086933 0.62006 0.35533 -0.10466 -0.36648 -0.25156 0.19069 0.76762 0.0098226 -0.15582 -0.10415 0.10451 0.23898 -0.20529 0.11932 -0.070459 -0.53584 -0.13021 0.42356 -0.44789 -0.17325 -0.34223 0.33347 0.11411 0.24324 -0.961 0.96722 0.10752 -0.67965 0.30211 0.31471 0.08004 0.13855 0.14508 0.23527 0.32952 0.069868 0.53296 -0.20347 0.25313 -0.098458 -0.54878 0.094518 0.32542 0.58709 -0.05976 -0.227 -0.28413 0.10787 -0.75822 0.13911 0.18483 -0.39064 -0.21995 -0.28773 -0.16599 0.25133 0.22524 0.29607 0.32346 -0.30718 -0.2416 -0.016057 -0.20431 0.57042 -0.44849 -0.020829 0.14115 0.34106 0.37088 0.19537 0.27805 0.31273 -1.32 0.19973 0.068768 0.58604 -0.41957 0.51556 -0.2973 0.141 -0.41481 -0.17378 -0.22264 -0.57195 0.32053 0.59912 0.38546 0.023432 0.013465 0.027017 0.066258 -0.34708 0.15166 -0.12383 0.91815 -0.051845 -0.0028153 0.1749 0.14012 0.66953 0.078606 0.12116 0.57603 -0.22754 -0.0086593 0.49326 -0.023616 0.37261 -0.57707 0.082559 0.12641 -0.1926 0.3636 -0.019387 0.1376 0.29835 -0.14812 0.40562 0.66462 0.083632 0.14675 -0.51359 0.30319 0.45053 0.6662 -0.71975 0.18988 0.014486 -0.68724 -0.098228 0.5173 -0.25117 -0.06163 -0.37766 -0.25555 -0.03543 0.33652 -0.19456 -0.51549 0.20734 0.13689 -0.46507 -0.45485 0.18028 -0.34068 0.11235 -0.55285 -0.31469 -0.16867 0.27204 -0.16266 -0.14415 -0.040885 0.050756 -0.13296 -0.42692 -0.32199 -0.47472 0.28537 -0.26791 0.27455 0.070706 0.19188 0.088988 -0.028251 0.014541 0.73896 -0.10273 0.27549 0.063852 -0.10971 -0.47089 0.43969 -0.80661 0.11035 0.55843 0.46155 -0.49973 -0.50396 0.25894 -0.26856 -0.32574 -0.39797 -0.23703 -0.084682 -0.56343 -0.14698 0.051933 0.046756 0.35492 0.30172 0.18106 0.27876 -0.11654 -0.13256 0.05472 0.74932 0.079922 -0.29818 0.27329 -2.2334 -0.44104 -0.79943 0.12252 -0.14084 0.086868 -0.13783 -0.040801 -0.090502 -0.14984 -0.22913 0.021038 0.048024 0.26921 -0.13776 0.1173 0.25888 0.039716 0.26605 0.47872 -0.17271 0.13068 0.40504 -0.015689 1.0146 -0.64666 0.038566 -0.0338 0.36387 -0.0084776 0.42609 -0.22402 -0.51192 0.048137 0.4654 0.04996 -0.45754 -0.57356 0.18771 -1.064 -0.53892 0.35282 -0.10418 -0.05147 0.0063756 -0.20255 -0.14797 -0.27912 -0.25356 -0.0015685 0.0048024 0.41185 -0.16533 0.2568 0.2785 -0.059984 1.588 -0.50181 0.21115 -0.33212 -0.11972 0.2397 -0.42869 0.39111 0.024831 0.069428 -0.067186 -0.47193 -0.19735 0.32313 0.14066 -0.080494 -0.28254 -0.9511 0.0097571 0.18467
cheek -0.53324 -0.099632 0.20029 -0.21688 -0.069163 -0.69921 -1.19 0.35279 -0.49909 -0.62562 0.043252 -0.68297 0.21541 -0.68634 0.16493 -0.4073 -0.45344 0.15869 -0.1592 0.25447 -0.65966 0.79181 0.015201 0.024683 0.27069 -0.10504 -0.14397 -0.28841 0.2569 -0.27979 0.12514 -0.049543 -0.069292 -0.19777 0.11925 -0.054565 -0.48803 -0.083406 0.23085 0.14162 0.83487 0.45015 -0.54329 -0.08767 0.17309 0.47209 -0.05283 0.15816 0.25375 0.93221 -0.24688 -0.64028 -0.1304 0.34546 0.23653 -0.02439 1.0007 -0.21083 0.98452 0.18193 0.049105 -0.1062 -0.012894 0.19423 0.055841 0.077708 -0.14562 1.2487 0.057618 0.5465 0.37742 -0.37183 -0.57295 0.10949 -0.069893 -0.49946 -0.2712 -0.1354 -0.40474 0.29232 -0.10745 0.59767 0.40844 -0.35871 -0.071336 0.10702 0.30316 -0.12767 -0.32759 0.3207 0.25024 0.39602 0.46431 -0.24813 0.23163 0.48336 -0.73834 0.44105 0.2381 -0.0024999 0.39219 0.016743 0.05512 0.36417 -0.30804 -0.23576 -0.97189 -0.023148 0.21805 0.24419 0.52201 0.13189 0.06454 -0.1575 0.21249 0.095698 -0.12547 -0.23613 0.46694 0.1536 -0.28614 0.39637 -0.41776 0.070718 -0.21726 -0.20401 -0.22285 -0.10189 -0.23769 0.44165 -0.24635 0.19314 -0.35895 -0.33554 0.28782 0.41454 0.1539 0.445 -0.50693 0.59556 -0.11226 0.63797 0.252 0.026294 0.17993 0.16554 -0.020183 -0.52136 0.80692 -0.66715 -0.19734 0.09371 -0.10641 -0.29376 0.62549 0.029643 0.084857 -0.24467 -0.19445 0.21079 0.54291 -0.51798 -0.52205 0.41616 0.22551 -0.19029 0.17334 0.30703 -0.7052 -0.097012 -0.41065 0.10227 -0.042589 -0.20045 -0.31945 0.00045507 0.063594 -0.30278 -0.46203 -0.44704 -0.12855 -0.086076 -0.61926 0.57212 -0.25499 0.022143 0.14827 -0.8922 -0.16749 0.094219 0.2728 -0.18925 -0.09708 0.7278 -0.41146 -0.18102 -0.0035328 -0.39102 0.24706 0.14377 0.24387 -0.19799 -0.047949 -0.56252 -0.33075 -0.16427 -0.48862 0.024343 0.19386 0.090254 0.14079 -0.80417 0.1414 0.32084 0.74023 0.12737 -0.097161 0.01366 -0.10227 0.067878 -0.3389 0.16462 0.090943 -0.10759 -1.5985 -0.63794 -0.46934 0.0024586 -0.12761 0.22483 0.031445 0.11917 -0.070563 -0.023515 -0.42897 0.1797 -0.27713 0.63716 -0.21773 -0.41912 0.25946 0.19836 -0.36437 0.26848 0.28901 0.80734 0.067101 0.45675 0.15552 -0.49094 0.36092 -0.25822 0.19215 0.13711 0.044091 -0.050756 -0.15967 0.15316 -0.09371 0.20614 -0.47125 0.012819 0.027645 -0.71017 -0.84743 -0.24447 0.28695 0.10845 0.13935 0.056355 -0.043693 -0.86828 -0.014971 0.1953 -0.465 0.14572 -0.3523 -0.22651 0.54337 0.3888 0.65811 -0.22067 0.20191 -0.018065 0.01177 -0.022721 -0.39198 0.45707 0.0010583 0.66605 -0.51872 -0.50916 -0.019015 -0.27961 0.53158 0.17966 -0.20412 -0.35869 -0.11381 0.67789
sassiness -0.048718 -0.14666 -0.14755 0.32157 0.037585 -0.056488 0.12371 -0.48468 -0.30824 -0.26631 0.20772 -0.48226 -0.047431 0.18549 -0.2585 -0.30905 -0.13209 -0.1258 -0.21054 0.46654 0.20829 -0.16534 0.079161 -0.17668 -0.024712 0.081034 0.069478 -0.14279 -0.048759 0.059148 -0.39194 -0.124 0.29551 0.35818 -0.23332 -0.23062 -0.13757 -0.62442 0.57022 0.081158 0.41378 -0.36797 -0.28767 -0.59006 0.40311 -0.023635 -0.56052 -0.1608 0.081074 0.33474 0.0834 0.12365 0.43567 0.1059 -0.35172 -0.031894 0.11546 -0.51916 -0.05824 -0.20644 0.16834 -0.038886 0.32517 0.1683 0.015867 0.49523 -0.16189 0.60264 -0.49656 0.12253 -0.041755 -0.023369 0.49415 0.11785 0.064044 0.08258 0.069867 -0.010237 0.57753 0.16378 0.3722 0.096189 -0.092595 -0.12424 0.083724 -0.2042 0.087273 0.42403 0.1154 -0.56679 0.027667 -0.49375 0.040198 0.057036 -0.29123 0.46658 0.2903 -0.17574 -0.38496 0.42234 -0.23541 0.053941 -0.30633 0.30955 -0.012253 -0.33901 -0.22322 0.015149 0.26569 0.12959 0.29563 -0.25187 -0.028518 -0.32803 0.027203 0.098412 -0.076742 -0.42471 0.22377 -0.057359 -0.15471 0.31671 -0.1539 -0.0084183 0.11203 0.15828 0.10755 -0.17892 0.098577 0.46422 0.083298 -0.27574 0.72397 -0.28682 0.27163 0.28121 0.17054 0.44703 0.15299 -0.54168 -0.040868 -0.65449 0.0019801 0.031665 0.23901 -0.02611 -0.25493 0.18543 -0.042513 -0.073912 -0.043638 -0.10089 0.16865 -0.22003 -0.31314 -0.44945 0.24455 -0.46208 0.17169 -0.64724 0.1552 -0.40972 -0.084244 0.4909 -0.1076 -0.57108 0.21541 -0.15021 0.08457 -0.1532 0.15245 0.12122 -0.17402 -0.32832 -0.40188 -0.25526 -0.24385 -0.5258 -0.25926 0.21899 0.061288 0.043871 0.092519 -0.46228 0.2913 -0.19781 0.4416 -0.18691 -0.090958 -0.43885 0.28272 0.12896 -0.19546 -0.34349 0.20411 -0.10662 -0.16949 0.0036703 0.025907 -0.057933 0.19422 -0.031097 -0.32575 -0.15925 -0.66442 -0.16572 0.2555 -0.069503 0.11063 -0.32083 0.21528 -0.30523 0.12203 -0.07104 -0.052679 -0.28163 0.34756 0.0077707 0.023454 0.046295 -0.22367 -0.03761 0.10798 0.15845 1.0077 0.13476 -0.0704 -0.42837 -0.1601 -0.099812 0.45184 -0.12407 -0.21835 -0.43168 -0.15173 0.61607 0.22576 0.17833 -0.14487 0.023834 0.010274 -0.18525 -0.34047 0.19122 -0.27762 0.62837 -0.12247 0.11593 -0.022362 -0.31742 -0.34292 -0.12368 0.16376 -0.16148 0.13286 0.03999 0.11353 -0.18208 -0.47552 -0.024986 0.095733 -0.34899 -0.35207 -0.20513 -0.45782 0.42961 -0.26374 0.25417 0.3089 -0.24051 0.36142 -0.5252 -0.52951 -0.14977 0.48127 0.1572 -0.022133 0.31694 -0.47998 0.24227 -0.23107 0.32579 0.13798 -0.019245 -0.24411 0.017884 -0.08074 0.1193 0.066404 -0.02554 0.46089 0.23533 0.049085 0.31042 0.24911 0.35523 -0.21674 -0.87898 -0.18501 0.31601
lip -0.0783 -0.34157 0.25132 -0.18201 0.48815 0.27717 -1.4952 0.23427 -0.20897 0.00043458 0.06911 -0.87512 -0.17807 -0.52599 0.18248 -0.43071 -0.87225 0.27628 0.12879 0.39281 -0.28515 0.11271 0.30823 -0.14915 0.86482 -0.85083 0.21427 -0.47834 0.35855 -0.32176 0.57425 -0.036534 0.20021 -0.041619 0.22042 0.86153 -0.40284 0.10559 0.44686 -0.29183 0.41259 0.25568 -0.32517 0.088764 -0.36759 0.61546 -0.07951 0.013151 0.045872 0.57637 0.43768 -0.44334 -0.020434 0.55436 0.39749 0.019982 1.0831 -0.036407 0.85285 0.42067 -0.062754 -0.033189 -0.0085443 0.51929 -0.4262 0.302 0.26385 0.74673 0.26694 0.42712 -0.21971 -0.58702 -0.51076 0.35284 -0.68207 -0.60602 -0.21371 0.27139 -0.05198 0.020914 -0.4172 0.62922 0.21319 -0.52122 0.14713 0.12856 0.010847 0.82454 -0.52224 -0.21313 0.57067 0.43019 0.073424 0.27758 0.081812 0.48923 -1.6323 0.36045 -0.28911 -0.068736 0.3317 -0.89905 0.30017 0.1232 -0.10273 -0.69077 -0.85669 0.56865 0.4064 0.74446 0.49322 0.012314 -0.40601 -0.0063798 -0.017277 0.19911 0.38821 -0.27909 0.45351 -0.03506 -0.12048 0.28675 -0.53655 0.31476 -0.026224 0.37322 0.2506 0.1262 0.23305 0.50988 -0.45454 0.35165 -0.28156 -0.60009 -0.42367 0.12196 -0.34093 0.20021 -0.93126 0.62217 0.051029 0.19463 0.18831 -0.49884 -0.23773 -0.33102 -0.072235 -0.32766 0.36017 -0.90523 -0.26739 0.059997 -0.19022 -0.62707 0.89794 0.40264 0.55627 -0.45162 -0.58667 -0.3957 0.30571 0.41786 -0.6058 -0.7166 0.021141 -0.73852 0.65307 0.44989 -1.1151 -0.21619 -0.19859 0.94797 -0.52792 0.11463 -0.21018 0.14077 0.11555 0.031742 -0.15903 -0.19263 -0.082917 -0.092249 -0.060002 0.57643 0.089618 -0.096174 -0.10168 0.13742 0.38226 -0.057882 0.20582 -0.35071 -0.6783 0.1115 -0.15688 -0.089995 -0.38932 -0.16113 0.072872 -0.052272 -0.18558 -0.45755 -0.20075 -0.62662 -0.45596 -0.0050372 -0.32628 0.095357 -0.37506 -0.3854 0.13038 -0.66401 0.11339 -0.15048 0.47907 -0.11303 0.93535 -0.1324 0.42595 0.047232 0.28514 -0.32912 -0.3579 0.29927 -1.8297 -0.15171 0.2075 -0.10705 -0.083662 0.2563 0.18909 -0.061393 0.040851 -0.49518 -0.88359 0.0077404 -0.086841 0.51064 -0.06736 -0.16125 -0.064274 -0.31328 0.17262 0.66053 -0.1499 0.23683 -0.040142 0.19237 0.61975 -0.65527 0.72306 0.059732 -0.12914 0.21553 0.80632 -0.18844 0.032517 0.77414 0.0035098 0.30934 -0.21042 -0.017922 0.057066 -0.66526 -0.89967 -0.51779 -0.029975 -0.15429 0.16952 -0.37516 -0.13344 -0.95545 -0.029577 -0.25057 -0.48005 -0.4739 -0.7265 0.067807 0.36957 0.046657 0.93599 -0.52156 0.19871 -0.3909 -0.055455 -0.003675 -0.50787 0.33476 -0.011209 0.23692 -0.67138 -0.31653 0.10926 -0.31445 0.35407 0.15138 -0.10579 -0.37995 -0.15732 0.54621
